digraph Tree {
node [shape=box, style="filled, rounded", color="black", fontname=helvetica] ;
edge [fontname=helvetica] ;
0 [label="X[0] <= 2.5\ngini = 0.48\nsamples = 620\nvalue = [366, 254]", fillcolor="#f7d8c2"] ;
1 [label="X[4] <= 50.99\ngini = 0.49\nsamples = 293\nvalue = [123, 170]", fillcolor="#c8e4f8"] ;
0 -> 1 [labeldistance=2.5, labelangle=45, headlabel="True"] ;
2 [label="X[1] <= 17.5\ngini = 0.5\nsamples = 188\nvalue = [97, 91]", fillcolor="#fdf7f3"] ;
1 -> 2 ;
3 [label="X[4] <= 11.25\ngini = 0.11\nsamples = 17\nvalue = [1, 16]", fillcolor="#45a3e7"] ;
2 -> 3 ;
4 [label="gini = 0.5\nsamples = 2\nvalue = [1, 1]", fillcolor="#ffffff"] ;
3 -> 4 ;
5 [label="gini = 0.0\nsamples = 15\nvalue = [0, 15]", fillcolor="#399de5"] ;
3 -> 5 ;
6 [label="X[4] <= 7.75\ngini = 0.49\nsamples = 171\nvalue = [96, 75]", fillcolor="#f9e3d4"] ;
2 -> 6 ;
7 [label="gini = 0.0\nsamples = 11\nvalue = [11, 0]", fillcolor="#e58139"] ;
6 -> 7 ;
8 [label="gini = 0.5\nsamples = 160\nvalue = [85, 75]", fillcolor="#fcf0e8"] ;
6 -> 8 ;
9 [label="X[1] <= 63.5\ngini = 0.37\nsamples = 105\nvalue = [26, 79]", fillcolor="#7abdee"] ;
1 -> 9 ;
10 [label="X[1] <= 18.5\ngini = 0.35\nsamples = 102\nvalue = [23, 79]", fillcolor="#73baed"] ;
9 -> 10 ;
11 [label="gini = 0.0\nsamples = 13\nvalue = [0, 13]", fillcolor="#399de5"] ;
10 -> 11 ;
12 [label="gini = 0.38\nsamples = 89\nvalue = [23, 66]", fillcolor="#7ebfee"] ;
10 -> 12 ;
13 [label="gini = 0.0\nsamples = 3\nvalue = [3, 0]", fillcolor="#e58139"] ;
9 -> 13 ;
14 [label="X[1] <= 6.5\ngini = 0.38\nsamples = 327\nvalue = [243, 84]", fillcolor="#eead7d"] ;
0 -> 14 [labeldistance=2.5, labelangle=-45, headlabel="False"] ;
15 [label="X[2] <= 2.5\ngini = 0.49\nsamples = 25\nvalue = [11, 14]", fillcolor="#d5eaf9"] ;
14 -> 15 ;
16 [label="X[4] <= 10.8\ngini = 0.13\nsamples = 14\nvalue = [1, 13]", fillcolor="#48a5e7"] ;
15 -> 16 ;
17 [label="gini = 0.5\nsamples = 2\nvalue = [1, 1]", fillcolor="#ffffff"] ;
16 -> 17 ;
18 [label="gini = 0.0\nsamples = 12\nvalue = [0, 12]", fillcolor="#399de5"] ;
16 -> 18 ;
19 [label="X[4] <= 31.33\ngini = 0.17\nsamples = 11\nvalue = [10, 1]", fillcolor="#e88e4d"] ;
15 -> 19 ;
20 [label="gini = 0.0\nsamples = 8\nvalue = [8, 0]", fillcolor="#e58139"] ;
19 -> 20 ;
21 [label="gini = 0.44\nsamples = 3\nvalue = [2, 1]", fillcolor="#f2c09c"] ;
19 -> 21 ;
22 [label="X[1] <= 38.5\ngini = 0.36\nsamples = 302\nvalue = [232, 70]", fillcolor="#eda775"] ;
14 -> 22 ;
23 [label="X[2] <= 3.5\ngini = 0.38\nsamples = 266\nvalue = [198, 68]", fillcolor="#eeac7d"] ;
22 -> 23 ;
24 [label="gini = 0.39\nsamples = 254\nvalue = [186, 68]", fillcolor="#efaf81"] ;
23 -> 24 ;
25 [label="gini = 0.0\nsamples = 12\nvalue = [12, 0]", fillcolor="#e58139"] ;
23 -> 25 ;
26 [label="X[1] <= 62.0\ngini = 0.1\nsamples = 36\nvalue = [34, 2]", fillcolor="#e78845"] ;
22 -> 26 ;
27 [label="gini = 0.06\nsamples = 34\nvalue = [33, 1]", fillcolor="#e6853f"] ;
26 -> 27 ;
28 [label="gini = 0.5\nsamples = 2\nvalue = [1, 1]", fillcolor="#ffffff"] ;
26 -> 28 ;
}