digraph Tree {
node [shape=box, style="filled, rounded", color="black", fontname=helvetica] ;
edge [fontname=helvetica] ;
0 [label="X[1] <= 44.5\nentropy = 0.81\nsamples = 15556\nvalue = [11696, 3860]", fillcolor="#eeab7a"] ;
1 [label="X[0] <= 11.5\nentropy = 1.0\nsamples = 3869\nvalue = [1837, 2032]", fillcolor="#ecf6fd"] ;
0 -> 1 [labeldistance=2.5, labelangle=45, headlabel="True"] ;
2 [label="X[1] <= 39.5\nentropy = 0.99\nsamples = 2930\nvalue = [1636, 1294]", fillcolor="#fae5d6"] ;
1 -> 2 ;
3 [label="X[0] <= 7.5\nentropy = 1.0\nsamples = 1829\nvalue = [890, 939]", fillcolor="#f5fafe"] ;
2 -> 3 ;
4 [label="X[0] <= 5.5\nentropy = 0.97\nsamples = 673\nvalue = [401, 272]", fillcolor="#f7d6bf"] ;
3 -> 4 ;
5 [label="entropy = 0.9\nsamples = 244\nvalue = [166, 78]", fillcolor="#f1bc96"] ;
4 -> 5 ;
6 [label="entropy = 0.99\nsamples = 429\nvalue = [235, 194]", fillcolor="#fae9dc"] ;
4 -> 6 ;
7 [label="X[0] <= 9.5\nentropy = 0.98\nsamples = 1156\nvalue = [489, 667]", fillcolor="#cae5f8"] ;
3 -> 7 ;
8 [label="entropy = 1.0\nsamples = 715\nvalue = [330, 385]", fillcolor="#e3f1fb"] ;
7 -> 8 ;
9 [label="entropy = 0.94\nsamples = 441\nvalue = [159, 282]", fillcolor="#a9d4f4"] ;
7 -> 9 ;
10 [label="X[0] <= 8.36\nentropy = 0.91\nsamples = 1101\nvalue = [746, 355]", fillcolor="#f1bd97"] ;
2 -> 10 ;
11 [label="X[0] <= 6.5\nentropy = 0.8\nsamples = 641\nvalue = [487, 154]", fillcolor="#eda978"] ;
10 -> 11 ;
12 [label="entropy = 0.7\nsamples = 339\nvalue = [275, 64]", fillcolor="#eb9e67"] ;
11 -> 12 ;
13 [label="entropy = 0.88\nsamples = 302\nvalue = [212, 90]", fillcolor="#f0b68d"] ;
11 -> 13 ;
14 [label="X[4] <= 15.5\nentropy = 0.99\nsamples = 460\nvalue = [259, 201]", fillcolor="#f9e3d3"] ;
10 -> 14 ;
15 [label="entropy = 0.99\nsamples = 456\nvalue = [255, 201]", fillcolor="#f9e4d5"] ;
14 -> 15 ;
16 [label="entropy = 0.0\nsamples = 4\nvalue = [4, 0]", fillcolor="#e58139"] ;
14 -> 16 ;
17 [label="X[0] <= 18.5\nentropy = 0.75\nsamples = 939\nvalue = [201, 738]", fillcolor="#6fb8ec"] ;
1 -> 17 ;
18 [label="X[0] <= 13.5\nentropy = 0.8\nsamples = 823\nvalue = [201, 622]", fillcolor="#79bded"] ;
17 -> 18 ;
19 [label="X[1] <= 36.5\nentropy = 0.89\nsamples = 434\nvalue = [135, 299]", fillcolor="#92c9f1"] ;
18 -> 19 ;
20 [label="entropy = 0.78\nsamples = 190\nvalue = [44, 146]", fillcolor="#75bbed"] ;
19 -> 20 ;
21 [label="entropy = 0.95\nsamples = 244\nvalue = [91, 153]", fillcolor="#afd7f4"] ;
19 -> 21 ;
22 [label="X[1] <= 39.5\nentropy = 0.66\nsamples = 389\nvalue = [66, 323]", fillcolor="#61b1ea"] ;
18 -> 22 ;
23 [label="entropy = 0.53\nsamples = 249\nvalue = [30, 219]", fillcolor="#54aae9"] ;
22 -> 23 ;
24 [label="entropy = 0.82\nsamples = 140\nvalue = [36, 104]", fillcolor="#7ebfee"] ;
22 -> 24 ;
25 [label="entropy = 0.0\nsamples = 116\nvalue = [0, 116]", fillcolor="#399de5"] ;
17 -> 25 ;
26 [label="X[0] <= 10.5\nentropy = 0.63\nsamples = 11687\nvalue = [9859, 1828]", fillcolor="#ea985e"] ;
0 -> 26 [labeldistance=2.5, labelangle=-45, headlabel="False"] ;
27 [label="X[0] <= 7.5\nentropy = 0.49\nsamples = 9046\nvalue = [8066, 980]", fillcolor="#e89051"] ;
26 -> 27 ;
28 [label="X[1] <= 45.5\nentropy = 0.37\nsamples = 4627\nvalue = [4301, 326]", fillcolor="#e78b48"] ;
27 -> 28 ;
29 [label="entropy = 0.0\nsamples = 139\nvalue = [139, 0]", fillcolor="#e58139"] ;
28 -> 29 ;
30 [label="X[0] <= 5.5\nentropy = 0.38\nsamples = 4488\nvalue = [4162, 326]", fillcolor="#e78b49"] ;
28 -> 30 ;
31 [label="entropy = 0.3\nsamples = 1895\nvalue = [1795, 100]", fillcolor="#e68844"] ;
30 -> 31 ;
32 [label="entropy = 0.43\nsamples = 2593\nvalue = [2367, 226]", fillcolor="#e78d4c"] ;
30 -> 32 ;
33 [label="X[1] <= 45.5\nentropy = 0.6\nsamples = 4419\nvalue = [3765, 654]", fillcolor="#ea975b"] ;
27 -> 33 ;
34 [label="entropy = 0.0\nsamples = 117\nvalue = [117, 0]", fillcolor="#e58139"] ;
33 -> 34 ;
35 [label="X[0] <= 8.36\nentropy = 0.61\nsamples = 4302\nvalue = [3648, 654]", fillcolor="#ea985c"] ;
33 -> 35 ;
36 [label="entropy = 0.53\nsamples = 1323\nvalue = [1165, 158]", fillcolor="#e99254"] ;
35 -> 36 ;
37 [label="entropy = 0.65\nsamples = 2979\nvalue = [2483, 496]", fillcolor="#ea9a61"] ;
35 -> 37 ;
38 [label="X[0] <= 13.5\nentropy = 0.91\nsamples = 2641\nvalue = [1793, 848]", fillcolor="#f1bd97"] ;
26 -> 38 ;
39 [label="X[0] <= 12.5\nentropy = 0.82\nsamples = 1945\nvalue = [1448, 497]", fillcolor="#eeac7d"] ;
38 -> 39 ;
40 [label="X[1] <= 51.5\nentropy = 0.78\nsamples = 1531\nvalue = [1174, 357]", fillcolor="#eda775"] ;
39 -> 40 ;
41 [label="entropy = 0.69\nsamples = 344\nvalue = [281, 63]", fillcolor="#eb9d65"] ;
40 -> 41 ;
42 [label="entropy = 0.81\nsamples = 1187\nvalue = [893, 294]", fillcolor="#eeaa7a"] ;
40 -> 42 ;
43 [label="X[3] <= 20188.15\nentropy = 0.92\nsamples = 414\nvalue = [274, 140]", fillcolor="#f2c19e"] ;
39 -> 43 ;
44 [label="entropy = 0.94\nsamples = 398\nvalue = [258, 140]", fillcolor="#f3c5a4"] ;
43 -> 44 ;
45 [label="entropy = 0.0\nsamples = 16\nvalue = [16, 0]", fillcolor="#e58139"] ;
43 -> 45 ;
46 [label="X[0] <= 18.5\nentropy = 1.0\nsamples = 696\nvalue = [345, 351]", fillcolor="#fcfdff"] ;
38 -> 46 ;
47 [label="X[1] <= 59.5\nentropy = 1.0\nsamples = 628\nvalue = [337, 291]", fillcolor="#fbeee4"] ;
46 -> 47 ;
48 [label="entropy = 1.0\nsamples = 383\nvalue = [185, 198]", fillcolor="#f2f9fd"] ;
47 -> 48 ;
49 [label="entropy = 0.96\nsamples = 245\nvalue = [152, 93]", fillcolor="#f5ceb2"] ;
47 -> 49 ;
50 [label="X[0] <= 19.5\nentropy = 0.52\nsamples = 68\nvalue = [8, 60]", fillcolor="#53aae8"] ;
46 -> 50 ;
51 [label="entropy = 0.81\nsamples = 28\nvalue = [7, 21]", fillcolor="#7bbeee"] ;
50 -> 51 ;
52 [label="entropy = 0.17\nsamples = 40\nvalue = [1, 39]", fillcolor="#3ea0e6"] ;
50 -> 52 ;
}